{
    "dnn_layers": [
        {
            "n": 60,
            "activation": "relu",
            "w": [
                [
                    0.05801711212889163,
                    -0.021887587358612254,
                    -0.01881465118310486,
                    -0.03738774509569136,
                    0.031835486475040906,
                    -0.08368537709033293,
                    0.05407117047066092,
                    -0.0349446323224114,
                    0.022129602206287072,
                    -0.0042933272907186276,
                    -0.002340452973108924,
                    -0.12145035681054572,
                    0.05960997876417628,
                    0.044100836543142896,
                    0.09339804464585527,
                    0.03561039933781828,
                    -0.005077572676994917,
                    -0.09525567857244918,
                    0.010295878667110922,
                    0.054789483360458476,
                    -0.01871718167165909,
                    0.04253474914595351,
                    0.03473026017133415,
                    0.022102159178418866,
                    0.03323032560090777,
                    -0.024811592028306337,
                    -0.00492807938619749,
                    -0.03366617355660907,
                    -0.009580603832565584,
                    0.018606171236436,
                    -0.02403832968183907,
                    -0.011948062284253953,
                    -0.020543100832796552,
                    -0.03189824886726846,
                    -0.020129098450021025,
                    0.01424962018403706,
                    -0.06759484857901497,
                    -0.11433605613565385,
                    -0.07400814229153803,
                    -0.014370374449154202,
                    0.04631965399817163,
                    0.01455874127054577,
                    0.016374892449426387,
                    0.1326164920297222,
                    0.023817779876773134,
                    -0.11256962992368401,
                    -0.08849042400572502,
                    0.038787274186703614,
                    0.035995772230095445,
                    0.04706322393213832,
                    0.023749893384284952,
                    0.0008744948932504184,
                    -0.02885875757487853,
                    -0.009572379915436231,
                    -0.007936458440936179,
                    0.021345240713608545,
                    0.02973503128988454,
                    0.032588399579703324,
                    0.010565664455993514,
                    0.0370498292626506,
                    -0.020440020117350084,
                    0.0521819035470781,
                    0.007172366862712666,
                    -0.05416124070006592,
                    -0.033511610787173476,
                    -0.03900993498060684,
                    0.04506597695837751,
                    0.06418012186053221,
                    0.10132903193021674,
                    0.023756193441134603,
                    0.0365302489269709,
                    0.055158834094754285,
                    0.03374007552871714,
                    0.05748788812778219,
                    0.014582197980227118,
                    -0.08661230299388281,
                    -0.05508558165253806,
                    0.007242320901426083,
                    0.018186258965877097,
                    0.03321979746296559,
                    0.00708243640046668,
                    0.0007739830396332603,
                    0.008496646401103912,
                    0.015589072786422891,
                    0.006644241311325639,
                    0.003888271879600369,
                    -0.022114207968903284,
                    0.02088624596063081,
                    0.008071858229862804,
                    0.03349985083938488,
                    0.027425449113608627,
                    0.027135279170484996,
                    0.019462641658957607,
                    -0.004072061111992082,
                    -0.012964935297788709,
                    -0.030777258679145138,
                    -0.005271406537345886,
                    0.039093221639452225,
                    0.008909924860868012,
                    0.043751117101965456,
                    -0.01761549565881963,
                    0.007686294558271995,
                    0.005794502001122405,
                    0.06463678602385953,
                    -0.0012480378225205374,
                    0.00833463222217783,
                    0.003015439828980477,
                    -0.030504061359290662,
                    0.002279910199984968,
                    0.011426513171330687,
                    -0.045026221386778885,
                    0.01133909031354629,
                    0.029856080863124974,
                    -0.03079054234212604,
                    0.016095371787074344,
                    -0.03679918817173322,
                    -0.0009076656751200957,
                    -0.05738157810075802,
                    0.07745717677618855,
                    0.008178929672483725,
                    -0.02467494246333207,
                    -0.04452286827081184,
                    0.009587872073449102,
                    0.03764156624567959,
                    -0.05781683327257554,
                    0.06496847348467402,
                    0.06500104024265382,
                    0.0233360459401949,
                    -0.04300697215819793,
                    0.00017551052682210404,
                    -0.030597325739842893,
                    -0.022549626345552125,
                    -0.047789508659590085,
                    0.048809417676294334,
                    0.05076932089550081,
                    -0.03002562185543183,
                    0.03119260214012753,
                    -0.03202572189091139,
                    0.0312971096405395,
                    0.0038531010280219284,
                    -0.0073046600026013325,
                    -0.0037053242816151065,
                    0.03869701412730084,
                    0.038664848137345345,
                    0.026770596002981963,
                    0.020192759244607204,
                    0.025814891537965942,
                    -0.025607814857424287,
                    -0.033123890163217116,
                    -0.00010918315857535717,
                    -0.03794057860769241,
                    -0.11345321212207048,
                    0.018485618710862572,
                    0.08377195034407274,
                    0.02675068035760545,
                    -0.011885374489526358,
                    -0.01018741308948815,
                    -0.007579724261944155,
                    0.0013759739901846066,
                    -0.03684832719068295,
                    -0.04943340867529439,
                    -0.05311653949935492,
                    0.03363340996582599,
                    -0.019784898892010617,
                    0.0168293020735113,
                    -0.002198767072120541,
                    0.04358563085532069,
                    0.01208941313362331,
                    0.07792060707957392,
                    -0.06533952769055024,
                    -0.010666609399121186,
                    0.04688743863495327,
                    0.09863745578352236,
                    0.018863123026995273,
                    0.013472994706984232,
                    -0.05558462515911962,
                    0.03426116278003234,
                    -0.020308780233155542,
                    0.006294747642598162,
                    -0.011874973356539665,
                    -0.05079472638422582,
                    0.031112160423590707,
                    0.040469544764973636,
                    0.049152288006091116,
                    -0.0026524210202074757,
                    -0.01492115701970373,
                    0.015933323256284083,
                    0.009673431077269413,
                    -0.037364030677146054,
                    -0.0461234678565038,
                    0.048776794282502846,
                    0.0019268793092239514,
                    0.05269142527815684,
                    0.050943811557776206,
                    0.04274055737389109,
                    -0.05305256948406156,
                    0.021682582009162826,
                    0.020443887777959927,
                    0.04441728540276409,
                    0.052128100500554816,
                    -0.00041045790351124236,
                    0.0644869435183886,
                    -0.0069053943406694055,
                    0.047907437491589024,
                    -0.03871271145827882,
                    -0.06525083715844847,
                    -0.07281618336217002,
                    -0.027312225226004433,
                    -0.049037077478964006,
                    0.06878346029830358,
                    -0.016650610607422896,
                    -0.06250628614555763,
                    0.03961274657308842,
                    -0.010503779461752068,
                    -0.03822518562100226,
                    0.04181871102218878,
                    0.001745458729335952,
                    -0.04805284950162098,
                    0.06218429551334512,
                    0.010728439631045888,
                    0.057714757589154765,
                    0.05087461554334549,
                    0.06933860857149349,
                    0.00388914651818134,
                    -0.04280231876333081,
                    0.09341885763920103,
                    -0.0011077894891434108,
                    0.009174188531223225,
                    -0.00634052607004282,
                    0.03702789213020649,
                    0.025028700926692595,
                    0.014464003257387201,
                    0.04896787836282181,
                    0.06977994592941811,
                    -0.013697912506109201,
                    -0.04401699229011479,
                    -0.060242766349755464,
                    -0.045775241045945284,
                    -0.07512745977458563,
                    0.006200826830391561,
                    -0.008371408633702278,
                    0.012288262839941005,
                    0.009884404615828414,
                    -0.04256497417135705,
                    -0.042747784120573284,
                    -0.007250410281563762,
                    0.027267391810807565,
                    0.00981726135384319,
                    0.08299826448199532,
                    -0.017007081333533108,
                    -0.01767332939112272,
                    -0.020633909228045463,
                    -0.09963225186760086,
                    0.07489948652511004,
                    0.03008585426470545,
                    -0.022999276450180305,
                    0.09590490963902028,
                    0.06935025812720556,
                    0.020358714923904127,
                    -0.0006150474214803605,
                    0.05190908766421356,
                    -0.02468858247131749,
                    0.025350608079532013,
                    -0.025422273146621613,
                    -0.025550340462554434,
                    0.025929133311332404,
                    0.016738050748237834,
                    0.011653798268772391,
                    0.031743315248594396,
                    0.004475369636160256,
                    0.052654074983083214,
                    0.05882249149437979,
                    0.028623203053429608,
                    0.010824087743324499,
                    -0.0220366285473737,
                    0.018834235330756142,
                    -0.02041017429915751,
                    0.08365432497662795,
                    -0.012602869465836459,
                    0.031299871035616364,
                    -0.02735127034037503,
                    -0.006871268460860628,
                    0.01997188005806859,
                    0.03783440505829372,
                    0.018641470685422056,
                    0.057053215859258787,
                    -0.007959850585314931,
                    0.022908746335491503,
                    0.01198152068659262,
                    0.04980751053806251,
                    -0.0026312027425800404,
                    -0.02517839940841107,
                    -0.00578658923525421,
                    -0.013895042446913305,
                    0.01861755915855963,
                    0.011360892656074506,
                    0.011988311346382239,
                    0.028714616515567226,
                    0.00047421711095993967,
                    0.04676776757980252,
                    0.08758096086507744,
                    -0.0624000238361035,
                    -0.01622585971863711,
                    0.01868028846515288,
                    0.008734248894318083,
                    0.09652318007608593,
                    0.008256441218094247,
                    -0.052378532764171405,
                    0.02471486175821598,
                    -0.009543615181456055,
                    0.054574242352650314,
                    0.0034690512465491053,
                    0.050118769206492435,
                    0.013888482323901729,
                    0.07046813314533087,
                    0.02267893987577472,
                    0.06575338268525836,
                    0.038803391503784625,
                    -0.03853682299002918,
                    -0.05280553885220377,
                    -0.0015715125612892423,
                    -0.007334369842699794,
                    0.030137636073085793,
                    -0.0034074720286976696,
                    0.019781809542016932,
                    0.019791088741467122,
                    0.012583874639728264,
                    0.06277960833513478,
                    0.001318500309940088,
                    0.016105284479704957,
                    0.019989621558299097,
                    0.07314813819188233,
                    -0.03300555754136462,
                    0.01986978751363778,
                    0.05184252592280926,
                    -0.05366047102603993,
                    -0.06883257748366,
                    -0.057184056458670786,
                    -0.07944452737972302,
                    -0.0828628057833524,
                    -0.013652735797648871,
                    0.0623326029984693,
                    -0.08148329722874162,
                    -0.01338228812547608,
                    0.02658994819701355,
                    0.028172676727550236,
                    -0.026511416023712257,
                    -0.02223576965931201,
                    0.026322817901106882,
                    -0.031859306524223176,
                    0.06266299751889258,
                    0.04914946160751215,
                    -0.00288782752644894,
                    0.04015461666204867,
                    0.020051130717965087,
                    0.023560728669808902,
                    0.03591010463862179,
                    -0.012857538945784152,
                    -0.008017696312514287,
                    0.00558623176619055,
                    -0.00543045422789875,
                    0.05782656076415483,
                    -0.059415502238470176,
                    -0.005171941298170893,
                    -0.007182052839238838,
                    0.037348998149436256,
                    0.02721188479566318,
                    -0.10610084820493183,
                    0.023749354776560563,
                    -0.0032751993984951678,
                    -0.0817564174558986,
                    -0.05786673918477507,
                    0.03525549637311608,
                    0.003631225059308127,
                    0.0538551279831656,
                    0.02958642459679245,
                    0.076385452320032,
                    -0.00758106831507789,
                    -0.03660535247084465,
                    0.04037079872391718,
                    0.027393186417880952,
                    0.01632423819855163,
                    -0.016834085725603163,
                    0.022936365749945734,
                    0.04500384008486753,
                    -0.009624325132430769,
                    0.002603109267885848,
                    0.029560942208280556,
                    -0.012577519988456473,
                    0.005354102195897721,
                    -0.019424501408009987,
                    0.06888178396321448,
                    -0.02097608994823094,
                    0.02940247320635149,
                    -0.020184650467198462,
                    0.03379752307220137,
                    -0.06845879673548295,
                    -0.012782782672678211,
                    -0.08495608948048321,
                    0.03403158681407327,
                    -0.050183589308830025,
                    0.025131251735253702,
                    -0.0002967836959913928,
                    0.05018302549869471,
                    -0.019401643736530014,
                    0.017543776470170542,
                    -0.04307015203381533,
                    -0.018951198867366986,
                    0.013134138453249978,
                    0.04022105942197613,
                    0.006290292236788632,
                    0.09274684105618967,
                    0.06721076053973189,
                    0.007073491735204421,
                    -0.09209903852022598,
                    -0.04561730895342622,
                    -0.009879039697013777,
                    0.06416375698951944,
                    0.044803808525114334,
                    -0.05251752599364464,
                    -0.014619270135970735,
                    0.07268951524691056,
                    0.025361552120661733,
                    0.0009647199860809067,
                    0.08562422613214081,
                    -0.04079283751479475,
                    -0.07948234945052068,
                    -0.024168049134009634,
                    -0.042793233357978126,
                    -0.017108247336950023,
                    0.013231023806299027,
                    0.03462616053351284,
                    0.026853012432787204,
                    -0.005698168183929332,
                    0.06402225026997019,
                    0.0138901191456031,
                    0.007457196596544302,
                    0.01958285811524518,
                    0.02702382538383057,
                    0.058587579458621336,
                    0.004364441251245678,
                    -0.07099899966995425,
                    -0.07488847847866661,
                    0.055088405582014416,
                    0.0036251438823086636,
                    0.031750039790619786,
                    -0.008127940919132014,
                    0.05926349668518856,
                    -0.013374196919100845,
                    0.07373652093103544,
                    0.028663742256425713,
                    0.08166297312702898,
                    0.046170940340068106,
                    -0.08079014794327313,
                    -0.03299006202871445,
                    -0.08918865316159165,
                    -0.07159691299366354,
                    0.018015593246399588,
                    -0.038078287697352234,
                    -0.023776193550210035,
                    -0.0121795314344931,
                    -0.010542069986956278,
                    0.07047952730479247,
                    0.039921146095182714,
                    -0.014600789244702293,
                    -0.010198538553628202,
                    0.014474201080601816,
                    0.062314597661688786,
                    0.017602880494676346,
                    -0.018707418350623933,
                    -0.0033912149512276947,
                    -0.004488614428983265,
                    0.0034450956181875927,
                    0.06547820864329931,
                    -0.008783369697412299,
                    0.007463049052464776,
                    -0.07171410137724367,
                    -0.026421572213042623,
                    0.07163439543569468,
                    0.02303115300289027,
                    0.03981126391977202,
                    -0.11329818163910996,
                    -0.09853302177128745,
                    -0.038523966674666114,
                    0.011370804266226999,
                    0.004936893756719827,
                    0.02649750469545367,
                    0.06095001925203912,
                    0.03811669540507477,
                    0.0038139669303199762,
                    0.017043472508772237,
                    0.02992420398509075,
                    -0.02483024233642629,
                    0.0034134831789892385,
                    -0.06493932564243461,
                    -0.02254343088376424,
                    0.006696916971681859,
                    -0.07386836514009637,
                    -0.06424473837157071,
                    -0.012668538761677357,
                    -0.06284849478029249,
                    -0.014560517989627025,
                    -0.03435079615490455,
                    -0.003554856845052533,
                    -0.016115990825342916,
                    0.030204690347768567,
                    0.04119008323213123,
                    0.053049909125054064,
                    0.007879249037243085,
                    -0.04535821209011255,
                    0.0012357289952654611,
                    -0.05201404139914341,
                    -0.011812746953494987,
                    -0.03835913827720096,
                    0.01663103833015231,
                    -0.011331010609728645,
                    -0.012075748306423845,
                    0.04849895499764611,
                    0.011788270536230463,
                    0.04260574748613076,
                    0.04190751961986962,
                    -0.030096303421324168,
                    0.0002885658355302281,
                    0.08121978922477482,
                    0.03898489236919425,
                    0.02799949315586033,
                    0.014231000637644221,
                    -0.031070062275935215,
                    0.019325493965689573,
                    0.023548368568411027,
                    0.050815784423500605,
                    -0.025040910064428854,
                    -0.022409572470719105,
                    0.02098649871831757,
                    0.023455515530175153,
                    0.008104687398476028,
                    0.03750713132718152,
                    -0.07819969920386431,
                    -0.1108375127561384,
                    -0.03987735029922498,
                    -0.015546459041136608,
                    -0.02752011972663653,
                    -0.060281121075611295,
                    0.05013044191915478,
                    -0.06451759695529691,
                    -0.04497751602486476,
                    -0.011512620335119843,
                    0.042400731937051926,
                    0.03854336766601441,
                    -0.04692809948980146,
                    -0.004882219316072101,
                    -0.0027643689186460556,
                    0.06333809335824503,
                    -0.04339974466350507,
                    -0.024534482533399946,
                    0.03434812943626971,
                    0.004408855232700002,
                    0.04691541000116177,
                    -0.014120146406180586,
                    0.019716352355367228,
                    0.03430467315117276,
                    0.009554292155869351,
                    0.07058896490550014,
                    0.030593999395091016,
                    -0.05522505265889318,
                    0.07746397937282286,
                    -0.032725317160475706,
                    -0.0518698391517135,
                    -0.05463642358447187,
                    -0.020772041464062033,
                    -0.027241911156674608,
                    0.023593779283636127,
                    0.01858771127371918,
                    0.07048282802986662,
                    0.0031501048528100135,
                    0.013392679886613487,
                    -0.006011184001078771,
                    -0.0015463012363059218,
                    0.010247769112283478,
                    0.10245553744181335,
                    0.06967543440394137,
                    -0.015086195571570938,
                    -0.04801075201314479,
                    0.004895621296109805,
                    0.06105736643372958,
                    -0.008318659243266528,
                    0.07338540356746777,
                    -0.02318346090388858,
                    0.006116778613179245,
                    -0.08522537274496886,
                    -0.0018719878952408741,
                    -0.004885960451538723,
                    0.026685993252884812,
                    0.01587686826854987,
                    -0.04036158675172653,
                    0.025296579390319034,
                    0.021698289323371003,
                    0.005895016226198365,
                    -0.04851399050241872,
                    0.037581676869469345,
                    -0.03371726231495361,
                    0.020737871506803705,
                    -0.04348749093311243,
                    -0.027049541283584035,
                    -0.06557563433460863,
                    -0.01907559398558969,
                    0.009406466210750973,
                    0.04328111613614827,
                    0.006337705376528169,
                    0.07555769967912536,
                    0.01856128786554029,
                    0.04811893295389732,
                    0.04909241074528491,
                    -0.02646180974270719,
                    -0.051938544952675296,
                    -0.019347460623367452,
                    0.044364724972572725,
                    -0.035342213920421195,
                    0.04042562038494248,
                    -0.018885902190351193,
                    0.02464517433928412,
                    -0.09678830211196365,
                    0.017757520926443948,
                    -0.007425686176117731,
                    0.04419115054968143,
                    -0.027725758661753388,
                    -0.0020477016624006294,
                    -0.009306706423302934,
                    0.025406171577298263,
                    -0.05837460062913113,
                    -0.04811432316090404,
                    0.0157462375542872,
                    -0.021114777591865457,
                    -0.021067694892389674,
                    -0.033213136451459714,
                    0.04435990040557113,
                    0.033500063862246,
                    0.04081647052892401,
                    -0.021684988079733937,
                    -0.00849183071806886,
                    0.047933664651494706,
                    0.029608775060519562,
                    -0.022425716697807012,
                    0.0428163676642333,
                    -0.03734365282999235,
                    0.02520241320419148,
                    -0.06151977305119365,
                    -0.05271993292097578,
                    -0.01635984491731728,
                    -0.02379548725696041,
                    0.042222387660107684,
                    0.050704012330030385,
                    0.0827511263067179,
                    0.009881475375235496,
                    -0.04679014407496243,
                    -0.030860601144923065,
                    0.03444404108223508,
                    -0.002390184774693446,
                    -0.018838221308682384,
                    -0.0714514810606387,
                    -0.022566329496831215,
                    -0.1136148771199551,
                    -0.0493004705419849,
                    -0.010652927173089714,
                    0.08819936989604843,
                    0.004081637898939311,
                    0.0025128149888573705,
                    0.058617725105210454,
                    -0.03513527605516288,
                    -0.002652676311964052,
                    -0.06009661943955912,
                    0.011979769296360425,
                    0.015589250793280038,
                    0.029661339207214622,
                    -0.029474760937807456,
                    -0.002367164056168115,
                    0.012932286483522584,
                    -0.0010683052136272468,
                    0.01617471348562305,
                    0.0387446735175397,
                    0.04146608606473222,
                    -0.06466165029347981,
                    -0.07587215229001755,
                    0.06932931484615996,
                    0.06153351221182674,
                    -0.054249723729348026,
                    -0.0025468648337213106,
                    0.010465065622369209,
                    0.012204761618229263,
                    -0.018685623752803773,
                    -0.06915016333242781,
                    0.00357949002507264,
                    0.031366597896672746,
                    0.012272778607668915,
                    -0.0005610384781792956,
                    -0.0005717683583311287,
                    0.028593281591362662,
                    0.03076088066674091,
                    -0.038228025233765395,
                    -0.010942975531874403,
                    -0.034648567010412475,
                    0.029102689988515697,
                    -0.02038628252075363,
                    0.030028862538660158,
                    -0.015918893928546684,
                    -0.007812805335371036,
                    -0.039364270592554255,
                    0.050408440912982154,
                    -0.01780809948239634,
                    -0.06487322761316265,
                    -0.05490945684538374,
                    -0.11321746350693902,
                    -0.013822990072179908,
                    -0.005638470943756903,
                    -0.010954798487130461,
                    0.04241288840357492,
                    -0.03872705849907368,
                    -0.008677488834175871,
                    -0.017329048115836642,
                    0.0026980936162429316,
                    -0.06974405293633727,
                    0.03376041314267981,
                    -0.007346353554075494,
                    0.005622847688233583,
                    -0.0387567356631925,
                    0.0021171877752237545,
                    0.0071844546711865775,
                    0.002839898294897671,
                    -0.008678976064642989,
                    0.025352922937906443,
                    0.011608867739361676,
                    -0.0005596781857463673,
                    0.11281734258349602,
                    -0.0577418468263477,
                    -0.024848022745081032,
                    -0.05697137084874684,
                    -0.025402260601315924,
                    -0.038099825967543986,
                    -0.08664073547126085,
                    -0.032385895692089293,
                    0.024431332702040693,
                    0.0651873328680459,
                    -0.02297241171238685,
                    0.006932676811182097,
                    0.008203510376792011,
                    -0.011700514557344473,
                    0.025135899285265502,
                    -0.021568651244437596,
                    -0.02430134055873943,
                    -0.04471171273373437,
                    0.04565707142215161,
                    -0.0020582496578452885,
                    0.06699395414460076,
                    -0.024612586326482406,
                    0.025033938025834764,
                    -0.023234818111287966,
                    -0.03403963846331387,
                    -0.026770606074400665,
                    -0.009079000903332607,
                    -0.02203084492403585,
                    0.03863450210176693,
                    -0.06591523543897296,
                    -0.05718316860511701,
                    0.04236527730212261,
                    -0.0009861331404782412,
                    -0.10611300701161133,
                    -0.0031674954397165013,
                    0.0300913494361951,
                    -0.02369580616979506,
                    0.051558419233191224,
                    0.06273600139989934,
                    0.07939007799818554,
                    0.0705730660706295,
                    0.013554602931038063,
                    0.008159830267522815,
                    -0.033849205300930565,
                    -0.042255248469978725,
                    -0.05532240618203653,
                    0.010353946188080571,
                    -0.08375782704774268,
                    0.022721131711340853,
                    -0.048493664851028496,
                    -0.013806196129877399,
                    0.01802422376423776
                ],
                [
                    0.04347943632782904,
                    -0.0693342872181034,
                    -0.02878319000804885,
                    -3.843884272925613e-05,
                    -0.021112027582662795,
                    0.03039015293803312,
                    -0.07507585889137502,
                    0.013298043644089793,
                    0.012241218472580804,
                    -0.02210191023123412,
                    0.024141208231209466,
                    -0.006218298282217766,
                    0.12535672602630787,
                    0.11149884099099822,
                    0.1647544055801159,
                    0.09618909362987867,
                    0.07559830817486417,
                    0.027562915597885363,
                    -0.0628485444078056,
                    -0.0016576487815104391,
                    -0.0010271686515714942,
                    -0.0065313726418753815,
                    -0.0268894072544286,
                    0.06523306721162507,
                    0.004348409551606916,
                    0.05394918029602368,
                    -0.020635156633869594,
                    -0.03798430946890636,
                    0.004670445367109142,
                    -0.020241833602309016,
                    0.08384750596410903,
                    0.0034559806555692256,
                    0.034640507029169855,
                    -0.018779959031222444,
                    -0.030882722035170836,
                    -0.039795204026034654,
                    -0.053604338162932086,
                    -0.03471270458339219,
                    0.0032977714028429735,
                    0.02519766372451848,
                    0.019247722385484396,
                    0.08680759222876461,
                    0.12034672662976455,
                    0.09389856246741923,
                    0.07190232181180475,
                    0.026529165546328497,
                    -0.021383195591128883,
                    -0.03220543605388724,
                    -0.04565658650257849,
                    -0.02159093340712856,
                    -0.02144846645880696,
                    0.020142803683831166,
                    -0.025351473401800422,
                    -0.00018096248079796902,
                    0.01182869703305565,
                    0.025610710126621614,
                    0.05321712752437612,
                    0.02370553198355914,
                    0.017950986739379105,
                    -0.060081658939540865,
                    0.010189075520895484,
                    0.055465053982478744,
                    -0.08126724219044723,
                    -0.11771997485863304,
                    -0.08310141853676382,
                    -0.007630091714634917,
                    0.0045003337140262145,
                    -0.019866092915496802,
                    0.02965245827814783,
                    0.07365932167743937,
                    0.07586578086193868,
                    0.13604487715618283,
                    0.07257245387590573,
                    -0.007397520760060795,
                    0.0059065681379829585,
                    -0.0577346423960976,
                    -0.11614948602121274,
                    -0.05581547999429513,
                    -0.010327887284307525,
                    -0.07400015746613171,
                    -0.03256192611600035,
                    -0.020327644080875035,
                    0.0074616542445575355,
                    -0.009371769922776786,
                    0.015634897711438632,
                    0.0014966183309061242,
                    0.03293303701187822,
                    -0.06937515565546037,
                    0.04537967325774627,
                    0.008438368492449848,
                    -0.06737245960799906,
                    -0.059419996709602435,
                    -0.05109990932732639,
                    -0.05700678814814683,
                    0.003223709249561526,
                    0.037456162843770326,
                    0.028967849857785354,
                    0.07468081356230494,
                    0.055797467097997606,
                    0.036141255474112524,
                    -0.012776618575070214,
                    -0.02653530925840733,
                    -0.035133402575389334,
                    0.018465567609189215,
                    -0.05247818738718314,
                    -0.11519986868934959,
                    -0.035151302072832534,
                    -0.03555095950128032,
                    -0.12766074874164454,
                    0.006764830381646231,
                    -0.057943254530812165,
                    0.020567165459209693,
                    -0.0348693287342371,
                    -0.054939320909756464,
                    0.013783909966703927,
                    -0.06322807618631578,
                    -0.03620312808375933,
                    -0.035016513946025486,
                    -0.037784125651846946,
                    -0.033188116725260945,
                    -0.04879780745272782,
                    -0.044867051589979556,
                    0.06846447967390548,
                    -0.008617362300286193,
                    0.09159433620199887,
                    0.021644522035802652,
                    0.09205564281960342,
                    0.053158044723854166,
                    -0.01949759766319544,
                    0.0032578953829630565,
                    0.00412274390300424,
                    0.007474750267268921,
                    -0.05151214803668638,
                    -0.06072953465533511,
                    -0.05924840458007378,
                    -0.06880131602348748,
                    0.02129629076550864,
                    -0.028063649105018962,
                    0.04720956944009097,
                    0.021868198767683113,
                    -0.03265378084215955,
                    -0.0079481773121509,
                    -0.013969077175374588,
                    -0.04175510088817406,
                    -0.005122498846936975,
                    -0.04853689804165567,
                    0.014777891959974846,
                    0.006867338875833436,
                    -0.05935856867463643,
                    -0.003964108323726978,
                    -0.0026939821816003144,
                    -0.025629041144189083,
                    0.06486805958912387,
                    0.07439957579396998,
                    0.0824741827005794,
                    -0.006311591952274025,
                    0.059968549815220096,
                    -0.013302839862001724,
                    0.007797095116296218,
                    0.05408651579836649,
                    -0.01387318187563561,
                    -0.09422057575541655,
                    -0.04017262131703169,
                    0.009941316994631825,
                    0.029755752895562877,
                    -0.04663945966914678,
                    -0.0058942727659924725,
                    0.010422160173895259,
                    0.014571606679404875,
                    0.02785365151948113,
                    -0.03806545171764198,
                    -0.024284880226692226,
                    0.024800607208139768,
                    -0.0009240011651913379,
                    -0.004791052248295096,
                    0.0331877424388263,
                    -0.011463744400963672,
                    0.01063197077151839,
                    -0.010812104236352305,
                    -0.017084025194007695,
                    -0.027236897165755378,
                    0.029793547298951825,
                    0.04012809630217866,
                    -0.013722580297400522,
                    0.01891942763366584,
                    -0.04407856951968869,
                    -0.043629652626297484,
                    -0.03867471176462021,
                    -0.038811628673457735,
                    -0.09427291091856843,
                    0.03684941861662562,
                    0.01917553310748403,
                    -0.10223572260355063,
                    -0.01390571612140843,
                    0.02635085962055985,
                    -0.003503642704327363,
                    0.0196049729919732,
                    -0.03849700169062139,
                    0.004143289991844466,
                    -0.004660912101190886,
                    -0.008609540753719312,
                    -0.013762639685383049,
                    -0.002035914633862149,
                    0.03306208725990203,
                    -0.02799431181274054,
                    -0.017779318574723906,
                    0.0288624930400639,
                    0.021863405015055383,
                    0.027329537581346465,
                    0.04064327637020589,
                    0.09475031533316633,
                    0.004725761431383587,
                    -0.07696833373553924,
                    -0.01428131189980576,
                    -0.02503956108156345,
                    -0.06519956804173044,
                    -0.020515099652714214,
                    -0.0732151360453448,
                    0.018433404467242957,
                    0.007620420328790346,
                    -0.04406657111884795,
                    -0.00974694743076731,
                    -0.012098988423122991,
                    0.026142837145257006,
                    0.02117508828776559,
                    0.055912425312682736,
                    0.023993105661386245,
                    -0.043823366090200565,
                    -0.04210058081743695,
                    0.04728670016334337,
                    0.060270178048470964,
                    -0.0033137405599308607,
                    0.01565044856844095,
                    -0.03979413370341242,
                    -0.02056746368361919,
                    -0.007518225056120244,
                    -0.0032137318776371427,
                    0.0039966223189633835,
                    0.02957762861214224,
                    0.0026777224568794405,
                    0.022293412813502556,
                    0.02166587493130159,
                    -0.017882309918845186,
                    0.02571543438220612,
                    -0.050693157988554984,
                    -0.02344130198830044,
                    0.002441950544138353,
                    0.01026182285027019,
                    0.04883006208181315,
                    -0.007052777602629915,
                    0.060625583740937385,
                    0.006711709505026954,
                    0.09406828800130389,
                    -0.008568719633770287,
                    0.002330007689444175,
                    0.01167997753379471,
                    -0.06317451854884186,
                    0.03919824624986683,
                    0.031630906615781135,
                    0.020489857618934702,
                    -0.04122270979256167,
                    -0.023996335595271697,
                    0.07049280305191205,
                    0.06706317139996,
                    0.047829766147637134,
                    -0.019954233278204357,
                    -0.007533173319862479,
                    -0.007171158023388289,
                    -0.09249241007051986,
                    -0.05212841631097658,
                    0.025943441977882866,
                    0.035824240255470645,
                    -0.005465347022490913,
                    0.05969301094023644,
                    0.007544254897220723,
                    0.022009762590901087,
                    0.004175155495451402,
                    0.011059034828233505,
                    -0.000244287013778432,
                    -0.0012483692491462946,
                    -0.019002352502358214,
                    0.028027848806423568,
                    0.021684933082787017,
                    -0.034890854589300566,
                    0.016413133948559786,
                    -0.011427720603325916,
                    -0.05353241698663066,
                    0.03492625897195552,
                    0.08815175172724896,
                    0.11486725278218239,
                    0.08212392282269612,
                    -0.03406311090482771,
                    0.020606590143772835,
                    0.04807886951527294,
                    -0.05952293163131507,
                    0.026538336162463108,
                    0.01299169939434463,
                    -0.014494264796483547,
                    0.015269551281155935,
                    -0.008108693611518347,
                    0.055733182011811794,
                    -0.010163896414702611,
                    -0.012458322816988526,
                    0.005285212677097897,
                    0.020136455046898614,
                    -0.06273450707540215,
                    0.06526762514780345,
                    0.01872893319145542,
                    0.030297309213569896,
                    0.03270069677016613,
                    0.01938953289458885,
                    0.01223141516137058,
                    0.03810270428357516,
                    0.03721414415056677,
                    0.07254010870224038,
                    0.04068225467448556,
                    0.028153033841621117,
                    0.0877761902427244,
                    -0.05487512950614484,
                    -0.07097947895184395,
                    0.0030358566402437152,
                    -0.0048625993590587875,
                    -0.06799424772945799,
                    -0.012890964961776741,
                    -0.03926996855008679,
                    0.0238784030533885,
                    -0.022149994551895456,
                    0.04093671372184848,
                    0.019299713016815427,
                    -0.0008899683251710177,
                    -0.00938494627824844,
                    0.02479504869810356,
                    -0.07291534100804349,
                    0.0037538116495831973,
                    -0.021418157815295893,
                    0.07321041902725008,
                    -0.011858902069864069,
                    0.06843506732054692,
                    -0.06503162024402577,
                    0.05942855235934765,
                    0.04355588837516864,
                    0.012346248198632793,
                    0.015556583893177399,
                    0.011377765543314572,
                    0.024214792391027567,
                    -0.01407345624850269,
                    -0.07494146322742727,
                    -0.010420102260284647,
                    0.09597378316036179,
                    0.009783641630510893,
                    0.011157992897482552,
                    -0.021700469401796266,
                    -0.00446842101743488,
                    -0.0019269400713256529,
                    -0.0104203461692081,
                    0.02872408761526989,
                    -0.024673574428902917,
                    0.00504032793244617,
                    0.02778915957597948,
                    -0.0005035098839578538,
                    -0.034290406522060154,
                    0.0122591168118099,
                    -0.05066926797968243,
                    -0.013826643342061259,
                    -0.014366534299031513,
                    0.017813768605358448,
                    0.0007551827274645915,
                    0.004982356393469405,
                    0.04560934604701732,
                    0.07527457782595917,
                    -0.010773058354526785,
                    0.014943288782978034,
                    -0.009006247191019173,
                    -0.007216981207601875,
                    0.046604671297638386,
                    0.024043066945205742,
                    -0.0021290453078041858,
                    -0.017176033469348633,
                    -0.019554159406852952,
                    0.01245070257044625,
                    0.029655678425558774,
                    -0.05042758156230623,
                    -0.05135317829867238,
                    -0.04127768759856743,
                    -0.05035268293423394,
                    0.054796104640067456,
                    0.012199863024725218,
                    0.06971226285183937,
                    -0.04920189664234522,
                    0.037528993882882666,
                    -0.033160858147365115,
                    -0.014349588423209741,
                    -0.02750851190103931,
                    -0.030296053385425983,
                    -0.04511200399238927,
                    0.02066924923406603,
                    -0.03766849515493576,
                    -0.0044006717773332656,
                    -0.007438419166941669,
                    0.03146235524380281,
                    -0.00120896655707804,
                    0.00794089407108292,
                    0.0395130601920609,
                    0.022098210332497727,
                    0.03867092268519062,
                    -0.02142091285444961,
                    -0.025181318411757605,
                    0.07341461785798975,
                    -0.0005705631124178999,
                    -0.02137187560842205,
                    0.04778071092253686,
                    0.008177060402016136,
                    0.006247378172838412,
                    -0.035282445504659074,
                    0.038930334928073435,
                    -0.05191388564436398,
                    -0.03047314738799059,
                    0.0030119256927382773,
                    -0.004722192787618347,
                    0.0004597434139395847,
                    -0.015656812053908453,
                    0.03124616111789849,
                    0.0826310406778979,
                    -0.009411251397144096,
                    0.029196138850538636,
                    0.073069136209304,
                    0.036810072334241294,
                    0.0005831798334195121,
                    -0.023019022753632993,
                    -0.03697355664885961,
                    -0.03326370946753627,
                    -0.007569141170371392,
                    0.027345713693807925,
                    -0.017131593756243967,
                    0.035285058046374294,
                    0.020003274717464752,
                    -0.007779487017648834,
                    0.03372804310530159,
                    0.009159655844112507,
                    0.017743425205348207,
                    0.04696763632194444,
                    0.02642507313212137,
                    0.0030871694027207438,
                    0.02786801490001165,
                    0.008550669862883697,
                    0.08816421669725162,
                    0.03599235956250534,
                    0.05539865158151453,
                    0.016720559199010065,
                    -0.010333763323771748,
                    0.06412232450590676,
                    0.019038707643613095,
                    -0.009017877680589361,
                    -0.011854434948000024,
                    0.012088406896463112,
                    -0.04774187876968223,
                    -0.0062132437274269375,
                    -0.047970378755077155,
                    0.021111742903363026,
                    -0.011299534372711447,
                    0.08287760038892453,
                    0.02078071052651379,
                    -0.04626787681484007,
                    0.08336510272876378,
                    -0.011775071573272315,
                    -0.03563406150376423,
                    -0.04388281444312262,
                    0.011584511542687354,
                    0.05880101553382333,
                    -0.015204820011259,
                    -0.029313798094917222,
                    -0.05428757341987925,
                    0.03826366043130687,
                    0.04740305049280831,
                    -0.018113748275993047,
                    0.0351157922652529,
                    -0.01880205850834791,
                    -0.014627440550802163,
                    0.03906300897839825,
                    0.025777901696179883,
                    0.02556885962342218,
                    -0.024531854083160543,
                    0.006716959882600654,
                    -0.02193028587076475,
                    -0.02120405410553665,
                    -0.005340736538690068,
                    -0.047441537104105175,
                    -0.002342716393522968,
                    -0.0016283039610598053,
                    -0.009103585908582262,
                    -0.0537978803193823,
                    -0.026250090606904645,
                    0.05599958563014592,
                    0.0290653497637837,
                    0.03686024700540619,
                    0.059680608644966666,
                    0.01244286777341785,
                    -0.0019064402437852736,
                    0.02003989486626312,
                    -0.07557970050728202,
                    -0.044828869901050096,
                    0.025293904838906638,
                    0.004088531054011269,
                    -0.034410509306072166,
                    0.013334708550840816,
                    0.038624065987524575,
                    0.031688257711972,
                    0.006947973148345752,
                    -0.029756278689233088,
                    -0.021784332749643757,
                    -0.009410794314080203,
                    -0.0302348513839576,
                    0.007237201681796642,
                    0.006465398582741039,
                    0.020327065618965856,
                    -0.04659428776170561,
                    0.06125509290501408,
                    0.051172940453829696,
                    -0.03307805342738238,
                    -0.03790257576460325,
                    0.03995282384350813,
                    -0.01241072039513056,
                    -0.03578319509822311,
                    0.03981377998664306,
                    -0.052396257320008015,
                    0.019227287676459846,
                    -0.036224251375949604,
                    0.05789667119638199,
                    0.016788045021000373,
                    -0.0073802535929461555,
                    0.0035592477577643064,
                    0.014997885270921987,
                    0.016167337492755986,
                    0.030690016377529425,
                    0.027882564020959115,
                    -0.010048165946673314,
                    0.032306068284980505,
                    -0.0364448412925,
                    0.0326313628506412,
                    0.027264297911480797,
                    0.045624425716196196,
                    -0.020809011218358216,
                    0.03312133800164726,
                    0.06802783851567544,
                    0.050690563845997155,
                    -0.02114261683541806,
                    -0.015971191925786703,
                    0.007064818019134068,
                    0.049739619534452,
                    -0.028840057582277014,
                    0.009673827663857168,
                    0.0053678323110969975,
                    0.030506459107004544,
                    -0.0011550683705764402,
                    0.01796198830046987,
                    0.01357844640880163,
                    0.004954608341951811,
                    0.014568000352872808,
                    -0.006340876052117529,
                    0.07485844664718898,
                    -0.03986573236555831,
                    -0.046760522418837845,
                    -0.039094691666509765,
                    -0.03337253453370065,
                    0.0044040271187769,
                    0.046653720401736605,
                    0.05771390216808239,
                    0.009251106109283544,
                    -0.0875113393719523,
                    0.013869055866150285,
                    -0.027264578422161352,
                    0.01752630928080256,
                    -0.0013348905223460213,
                    0.01804778350611231,
                    -0.045895313147770525,
                    0.02900777215496795,
                    0.017506052444929466,
                    -0.029530415316291345,
                    -0.012241092226445816,
                    0.024690559861199786,
                    -0.002757503804361854,
                    0.038766456466559865,
                    0.020047293335873014,
                    0.0312362500629973,
                    0.03344453194842978,
                    0.05367510835754189,
                    0.020985358911282254,
                    -0.010952320434066125,
                    0.026363035217067576,
                    -0.05183403803688703,
                    0.055084930094817505,
                    -0.049446046792473636,
                    0.04233158533203491,
                    -0.018698762545031535,
                    0.02103490902817891,
                    -0.01141137984107164,
                    -0.00576965005561455,
                    -0.029449719104710243,
                    -0.05464916741865498,
                    0.055094281256052945,
                    0.012372648556845259,
                    -0.024554213559254214,
                    -0.05078950793080613,
                    0.0773722785158816,
                    -0.015775071867851126,
                    -0.00930672564435209,
                    -0.07022968622511588,
                    0.030298045818236558,
                    -0.0005491543037593579,
                    -0.07574723810470645,
                    0.12918585913331648,
                    0.0009898229789933322,
                    0.06486221101259093,
                    0.0344400358759308,
                    0.03130741568507278,
                    -0.004807384536009442,
                    0.012230130727080204,
                    0.0448230850825314,
                    -0.0027730701190589752,
                    0.02206186571167388,
                    0.06107022712946393,
                    0.014621128553469228,
                    -0.011426347543430507,
                    0.03149201536604647,
                    -0.01602256501327999,
                    -0.015813861688996306,
                    -0.012758157293848325,
                    -0.00474911157676256,
                    0.056245901098063836,
                    0.018255019620696488,
                    -0.12132228090839493,
                    -0.028367284874274857,
                    0.03628348479449695,
                    0.06933043717382643,
                    0.04836726137117193,
                    0.012896622203385577,
                    0.048742015386800716,
                    -0.005602667873594207,
                    0.05770588010963361,
                    8.664616485925473e-05,
                    -0.0016247189434897358,
                    0.023244131508767727,
                    0.09012374164871312,
                    0.034862721025353594,
                    0.012429561942099524,
                    -0.006088089281458371,
                    -0.04079529836418321,
                    0.03762748276952187,
                    0.021071172746813516,
                    0.018584570804439503,
                    -0.024431907651062835,
                    -0.006566487519761401,
                    -0.08049904632134167,
                    0.012926260296322592,
                    0.06026198691092522,
                    0.05550101662500624,
                    0.09569648197520077,
                    -0.002901737019676118,
                    -0.01374541622285207,
                    0.018822185919315778,
                    -0.016059860948290747,
                    0.07221386902159217,
                    0.031297308111325174,
                    -0.022231229597709477,
                    -0.043303026024692104,
                    0.03150686876277298,
                    0.04915370305798194,
                    0.0406462719196427,
                    0.027538689617691424,
                    0.0006124343596625492,
                    0.009938994199250253,
                    0.05520918840836297,
                    0.050514452517505436,
                    -0.051192645565179946,
                    0.009331096553538065,
                    -0.027888804350647906,
                    -0.008192859999787652,
                    0.032098759815249366,
                    -0.025008167529412994,
                    -0.12557987611975188,
                    -0.003774470761809717,
                    0.04760545490760579,
                    0.0851989712009876,
                    0.013959950605463392,
                    0.07862686253219278,
                    -0.09665186468024164,
                    -0.06628702817795311,
                    0.035312132518465315,
                    0.04749880362295647,
                    0.06506565027982397,
                    0.051428128280487255,
                    -0.013860326863874058,
                    0.0341439833308138,
                    0.02945979936237028,
                    0.0616243437778564,
                    0.00691878110000129,
                    0.03849598425806328,
                    -0.010895470278788334,
                    0.03408403060733641,
                    -0.0011362416105931922,
                    -0.01109322819713183,
                    -0.05104757570946936,
                    0.005658862573884379,
                    0.047556444582766796,
                    0.057154782358810316,
                    -0.0961720098152012,
                    -0.06269390768965387,
                    0.051370416944145715,
                    -0.0179434029893054,
                    0.009470007815428375,
                    0.047059492070975296,
                    0.028115244612135885,
                    0.0007622516956977449,
                    -0.02137658700880843,
                    0.02721959715058098,
                    -0.040346658392326575,
                    0.06750288367027474,
                    0.008568497396267263,
                    0.00010927268256873026,
                    0.053315034062961536,
                    -0.029617476871444275,
                    0.037266775380119785,
                    -0.01616665087510943,
                    -0.016320939497533236,
                    0.017067801548050904,
                    0.0445029857797095,
                    -0.005470590843176416,
                    0.020697668702677748,
                    0.006198703362334131,
                    0.0027640818826627253,
                    -0.016689298504318592,
                    0.009028689167881092,
                    -0.04796696494926055,
                    0.007570941368476396,
                    -0.06733430519329409,
                    -0.019858670532201868,
                    0.0008837619659607847,
                    -0.0053684241548138,
                    0.03570998346685023,
                    0.023570501903109862,
                    0.027291138247093064,
                    -0.03775984467640544,
                    -0.03640200174154961,
                    0.04786518311025383,
                    -0.0011553702703668224,
                    -0.012370695958910277,
                    0.06053434430892246,
                    -0.06115243507836467,
                    -0.09161868319709342,
                    -0.06177266973695437,
                    0.02165091422585813,
                    0.04830849444280868,
                    0.04827708287635161,
                    0.013750427412652616,
                    0.06215893889491878,
                    0.05739390877410125,
                    0.042062715676457904,
                    -0.0386806027574604,
                    0.017991232108558342,
                    -0.015378056971255109,
                    0.01546660597325399,
                    0.012544628101167476,
                    0.03249811095548925,
                    0.008790719410809073,
                    -0.014997320830155451,
                    -0.03702333008807472,
                    -0.03877220149159398,
                    0.00503154119418874,
                    0.008093776234798813,
                    0.0033754422903367336,
                    -0.049855459576189864,
                    0.014651713903650696,
                    0.029583170085850017,
                    0.07342221485749656,
                    0.08795203508947237,
                    0.0233377982699666,
                    -0.024193767261619002,
                    0.06433945225549727,
                    0.054849073371746916,
                    0.03403068261110039,
                    0.06497531271177742,
                    0.01769080442420453,
                    -0.046062882868894005,
                    0.023181757839121065
                ],
                [
                    0.010719112040186137,
                    -0.06633241150847881,
                    -0.07734333420793353,
                    0.006186059145067793,
                    0.029333122501377786,
                    0.034137575609147486,
                    -0.027608755312181366,
                    0.004240631060246039,
                    0.018690019124605554,
                    -0.07345258739117802,
                    -0.053811947837005165,
                    -0.02073861100991218,
                    0.11733804312613157,
                    -0.0033859773566051626,
                    0.08761952755067656,
                    0.17650472318884716,
                    0.016839581226189025,
                    -0.056115086072014625,
                    0.012357681075446289,
                    -0.020762482364040567,
                    0.0693594350335518,
                    0.05738648964072374,
                    -0.029275405701337173,
                    0.017597841928938925,
                    -0.047456352612098636,
                    0.036972548796335214,
                    -0.059551817072001335,
                    -0.06490755805033674,
                    -0.0406107735090557,
                    -0.028630606984693985,
                    0.04631297885143635,
                    0.005427740836732873,
                    0.02562562272314895,
                    0.06318584327649324,
                    0.0049198698386222605,
                    -0.04178054486603566,
                    -0.07713303715041388,
                    -0.03908223873009993,
                    -0.039837147078711006,
                    -0.016662018935249334,
                    0.018499517191715328,
                    0.037817714017519995,
                    0.02018574197094155,
                    0.0814301978417026,
                    -0.033708726522840744,
                    -0.09113167519729586,
                    -0.12135386408145263,
                    -0.11390236847439034,
                    -0.1100314228995917,
                    0.004653345615416955,
                    0.059215045107688546,
                    0.029794828907085916,
                    0.02109793494215539,
                    -0.023674118171688043,
                    -0.02938481741103808,
                    -0.0375563065839353,
                    0.007839909190118568,
                    0.07406662130749798,
                    -0.0006346683485579959,
                    -0.03828982599781148,
                    0.06036584595189917,
                    -0.03869950532795812,
                    -0.04296466471604686,
                    -0.08968611009686307,
                    -0.01994000131877111,
                    0.11792976954615313,
                    -0.03028019364420779,
                    -0.009412798043402976,
                    0.002665991832856503,
                    0.043372535782355684,
                    0.06039249653165074,
                    0.015460066371308428,
                    0.0242344394171267,
                    0.06202616429260618,
                    -0.027426950305405953,
                    -0.04302367830677187,
                    0.0016087149437210811,
                    -0.12088135231794492,
                    -0.004562379179628654,
                    0.02980921101901887,
                    -0.008867649767181615,
                    0.05504972778754698,
                    -0.02944480891890182,
                    -0.03616717450183947,
                    -0.04888115143891664,
                    0.03342210750480187,
                    -0.008576742837768119,
                    0.049182592713248034,
                    -0.03970987678664317,
                    -0.029281934334407428,
                    -0.011943242007837416,
                    0.016444004299667962,
                    -0.0034511625278341195,
                    0.001967126203489196,
                    0.023599839762425887,
                    0.0348565948778301,
                    -0.0038350752570081572,
                    -0.0009560455738847667,
                    0.09276227616158324,
                    0.09688258726827965,
                    0.08240803836699072,
                    -0.007523986674445872,
                    -0.01548269203237894,
                    0.0064748266237607726,
                    -0.010107982591176934,
                    -0.09050265139958116,
                    0.0030458596862198593,
                    -0.0254807333683482,
                    0.1049211111194679,
                    0.031170191964384412,
                    -0.04177569074015893,
                    0.06977486461340905,
                    -0.029292172070292742,
                    -0.009730342299477916,
                    0.06667835936397964,
                    0.05983742908724243,
                    -0.10434265606735635,
                    -0.04781472300999552,
                    -0.04656439629350185,
                    0.022812140646324884,
                    0.0785520387373211,
                    -0.04127573130839179,
                    0.04515622106366859,
                    -0.0130393147871488,
                    0.09773715221056256,
                    0.008414769943089947,
                    0.010074566899729607,
                    0.05457020977847742,
                    -0.01249020032410015,
                    0.04845434851101458,
                    -0.07696557822419073,
                    0.02500463697574316,
                    -0.041206416665918406,
                    0.014652551997279462,
                    -0.029786368580192308,
                    -0.05902211566162936,
                    0.03074141112036498,
                    -0.007674976485725652,
                    0.07495892331799628,
                    0.013178690515368541,
                    -0.09638487003372119,
                    0.0799891998623067,
                    0.02531248988231983,
                    0.058749966097740476,
                    -0.03883925397853569,
                    -0.11558142847069637,
                    -0.023318998257564606,
                    -0.05466937321887899,
                    -0.002567902035759811,
                    -0.019322005257611286,
                    0.0213207064432207,
                    -0.05038361938995559,
                    0.023729399252557043,
                    0.011281121869732218,
                    0.05404451405772968,
                    -0.02017590496830393,
                    0.004477322055652544,
                    0.06360478129236438,
                    -0.057185912725937295,
                    0.012979892354036245,
                    0.03376410417213697,
                    -0.00900902929456085,
                    0.024891247384643343,
                    -0.005115107780995063,
                    0.057698421736469524,
                    0.017026659060814773,
                    0.032707931668350586,
                    0.03909137382720228,
                    -0.022562414460767528,
                    0.015531987401209873,
                    -0.012258882504477564,
                    -0.08121768473821381,
                    -0.017852296066945186,
                    0.029906925575715875,
                    -0.025283231725963185,
                    -0.012298796120561497,
                    -0.019258580619842803,
                    -0.00015020142017850796,
                    0.03257728201643976,
                    0.06738707047554085,
                    0.11237094804703253,
                    0.0640271428577808,
                    -0.004812276979744163,
                    -0.01846663943376389,
                    0.06865301257404656,
                    0.00264557249272871,
                    -0.04574585116612884,
                    -0.057081383499409596,
                    -0.053585594642604074,
                    0.032961686452760514,
                    -0.00822105112497478,
                    -0.08887082657499616,
                    0.016574582717637225,
                    0.06627335922539057,
                    0.04877550015638621,
                    0.04008304169532236,
                    -0.02287137992808705,
                    0.05263102920947528,
                    -0.034653629555595034,
                    -0.03564426505898791,
                    -0.07581705529160986,
                    -0.03224001193860871,
                    -0.03296784228785022,
                    -0.024503208162310875,
                    -0.010101830747781685,
                    0.051018464698094734,
                    0.02671788041232395,
                    0.0570500099652538,
                    0.09336093340333407,
                    0.0234307104750658,
                    -0.02348866432477279,
                    0.06347342943986682,
                    0.09665564060377035,
                    0.0021749524600830124,
                    0.006473802002877975,
                    -0.055678638657415326,
                    0.009437311904155863,
                    0.04403511981213096,
                    0.03636765873307773,
                    -0.02208949051263184,
                    0.05779556687476661,
                    0.08535239059584432,
                    0.08715073734280496,
                    0.029301076464711306,
                    0.040694362433893225,
                    0.0531683836713068,
                    0.013544132362810596,
                    0.024235782235066373,
                    0.051823212619253343,
                    0.07350828408399016,
                    0.03280987476962639,
                    0.05971998563677622,
                    -0.06591668746792968,
                    0.06442792502516458,
                    0.00010630356021427935,
                    -0.02956637718908456,
                    0.027779614184534993,
                    0.05583120485997647,
                    0.009742551196898725,
                    0.09101744136058995,
                    0.05846496975141009,
                    -0.06493074626395391,
                    0.013754901732338017,
                    -0.013978070686792169,
                    -0.010576084291787852,
                    0.007140288116930363,
                    0.005211551261350977,
                    -0.027157798109187985,
                    -0.006293422012745701,
                    0.08020672272134327,
                    0.07667484236294249,
                    0.04751354716560096,
                    -0.008771383992381452,
                    0.01912303880048517,
                    -0.01038908455726031,
                    0.03271628923278322,
                    -0.07350849067040376,
                    -0.03164445240311384,
                    -0.02021403451061716,
                    0.02219082806866077,
                    -0.01077484950271509,
                    0.00027073247872715133,
                    -0.004742240905016157,
                    0.022778371731341007,
                    -0.04112277960894959,
                    0.006783299542806981,
                    0.06406898383707182,
                    0.040466780831008825,
                    0.03710579525821723,
                    -0.06663489678516767,
                    -0.006176423822980328,
                    0.04504756989832951,
                    0.02191091958617681,
                    0.03418825120094581,
                    0.03503334044505389,
                    0.05106062834093034,
                    0.03747697417110201,
                    0.09769453844569664,
                    0.032004370249546436,
                    0.02408058224110318,
                    0.027019179984544034,
                    -0.013037654114248504,
                    0.02746332711232251,
                    -0.020471561431954874,
                    -0.025376967637065314,
                    -0.008933034925016023,
                    0.0015487638948324977,
                    0.003986763287607588,
                    0.08460459049706721,
                    0.05887673994855943,
                    -0.017398361438456515,
                    0.016846442916235074,
                    0.010777194231781594,
                    0.029030099066901075,
                    0.12220112131868782,
                    0.06665936500989532,
                    -0.01999911874798993,
                    -0.10812297046143947,
                    -0.05714256550496772,
                    0.02787986101746907,
                    0.030606203741699645,
                    0.054330809846208916,
                    0.015105932753972453,
                    0.042878589348364506,
                    0.0046876643670544635,
                    -0.025029383208917802,
                    -0.00036957108987031753,
                    -0.02742021245759351,
                    -0.04001022110480267,
                    0.07876987881233785,
                    0.004520750670494694,
                    -0.02770135568160522,
                    0.0250727585506972,
                    0.029131101205532056,
                    0.02694260411089246,
                    -0.01808833388407999,
                    -0.019381757119289356,
                    -0.01255322238795294,
                    0.001103748599227309,
                    -0.02760067025197348,
                    0.014063973781980868,
                    0.0037288723462620145,
                    0.053650492587676,
                    0.014897264058153753,
                    -0.017441695633115855,
                    -0.01890314988738818,
                    -0.08789010111279602,
                    0.01133136657992942,
                    0.01713504423730067,
                    -0.0005989748983488074,
                    0.04115653981471807,
                    0.02758367213635258,
                    0.02392922874939143,
                    -0.05975716764053858,
                    -0.05080452470144201,
                    -0.03508690746007973,
                    -0.005487951279445449,
                    0.04541907795409265,
                    0.03872616584199582,
                    -0.06267878357606749,
                    -0.035541041386299176,
                    -0.014720514728294762,
                    0.03016889014562889,
                    0.003812774536528914,
                    -0.012819930405043806,
                    -0.06332432833140612,
                    -0.08033524601362897,
                    0.025195312898755533,
                    0.053122864059075396,
                    0.05329594973329331,
                    0.050379268904984724,
                    0.011722375610591184,
                    -0.018903096778875257,
                    0.05379428618795989,
                    0.04477239342404219,
                    0.010046616169063055,
                    0.06858779824066456,
                    0.020536421407354694,
                    0.08095154590507574,
                    -0.004825139889622228,
                    -0.02041298437329065,
                    -0.016467861661959845,
                    0.01628063998331589,
                    -0.013446919116713226,
                    0.05317544535828447,
                    0.021798493544948814,
                    -0.050705491712420746,
                    -0.0052235014288577585,
                    -0.02797426065771658,
                    -0.03952066711174962,
                    -0.04632117551861137,
                    0.009883029951236346,
                    0.020083641661329085,
                    -0.08873822132325263,
                    -0.08183925572473803,
                    0.058717017758872427,
                    0.01942233217975088,
                    0.01322661695161657,
                    0.04762280640273039,
                    0.05140324803383176,
                    0.055656389372000875,
                    0.0017371857443557227,
                    0.0493245572983797,
                    0.00982813721905464,
                    0.016252354916615506,
                    0.046494193777521335,
                    -0.030648450780652554,
                    -0.02875670983276174,
                    0.020759607209351504,
                    -0.08513469538775252,
                    -0.011849695909225313,
                    -0.0166445054255549,
                    -0.0007794222044784916,
                    -0.029445706655059203,
                    -0.08573888209859828,
                    -0.048099972379041685,
                    -0.04656727274918291,
                    -0.021042599838741335,
                    -0.03482608855494404,
                    -0.03713057899699569,
                    -0.06331477285926553,
                    0.009860998636248001,
                    -0.037913687972959964,
                    -0.03381669600576497,
                    -0.0023028097942125554,
                    0.036919759995775,
                    0.10513872054337123,
                    0.06197380626891849,
                    -0.05164523709690713,
                    -0.03935302005908611,
                    0.022850500642121505,
                    0.05369957883494354,
                    0.02911810582926186,
                    0.11794387627456326,
                    0.022674879652220856,
                    0.04138001378234903,
                    -0.044136590754593016,
                    -0.055231075034971974,
                    -0.04454177017540378,
                    0.007607033568187741,
                    -0.03437624654264674,
                    0.012610807431397893,
                    0.014321254499662546,
                    0.04868574652304381,
                    0.009797515417902032,
                    -0.03679364971385105,
                    -0.015786890167240965,
                    0.008457858838582608,
                    -0.015342414269632133,
                    -0.05592790179301773,
                    -0.0012101199443979682,
                    0.04492428011943921,
                    0.032386946937648424,
                    0.0332410061203406,
                    0.010734624234212013,
                    -0.009766666692450281,
                    -0.0654105622218783,
                    0.018714218854368476,
                    -0.007564883443485994,
                    0.028060997850334776,
                    0.02994671919641767,
                    -0.010106079532197734,
                    -0.0006468759660299009,
                    -0.020774915581114495,
                    0.03922678666749706,
                    -0.01937401826614255,
                    0.012288326122177593,
                    0.026255857267394975,
                    0.057054947805920325,
                    -0.02606729816941461,
                    0.05167351578899107,
                    0.043553320851560155,
                    0.0060617542444953865,
                    -0.02077215910344579,
                    -0.07823407417959319,
                    -0.0022289990666712525,
                    -0.07662929333064794,
                    -0.0032322127072758984,
                    -0.02329531756679597,
                    -0.03464616556228558,
                    -0.060655677470771364,
                    0.008351878722854193,
                    0.03700715118967961,
                    -0.003170104015735307,
                    0.0106524012595303,
                    -0.0513860815014245,
                    0.042740167798133576,
                    0.01749567297272657,
                    -0.03701133543603263,
                    0.07207249162744854,
                    0.02739437777677915,
                    -0.015605438023566136,
                    -0.02738194294391807,
                    0.007841981882144322,
                    -0.04070451246970766,
                    0.07510021181555605,
                    -0.047634318209710175,
                    0.030575941923646575,
                    0.06280474426699845,
                    0.09282793360482354,
                    -0.026939685616952643,
                    -0.02343336752968041,
                    -0.01951147645589039,
                    -0.014567589876718384,
                    -0.05492148229379319,
                    -0.05385488001080223,
                    -0.026378826947526066,
                    -0.020160781832256724,
                    0.043132773314361494,
                    0.03791999890025001,
                    0.029184914941032133,
                    0.02787942613858314,
                    -0.07650473480391043,
                    0.0044197263839790635,
                    0.01614862451644424,
                    0.051637425176163175,
                    -0.01883761560786139,
                    -0.006085752010576807,
                    -0.05165270108841494,
                    -0.006243234970184742,
                    0.009208743779620972,
                    0.029453486233417377,
                    0.04141398897139427,
                    0.0517590232377449,
                    -0.010173562196440904,
                    0.03455540611158367,
                    0.06210103515413958,
                    0.0885537048391107,
                    0.056296771764991045,
                    -0.028313043488956514,
                    -0.05205437159242625,
                    0.019700291951786308,
                    -0.05244068604190849,
                    0.03558882800368447,
                    0.027009796604853475,
                    -0.0486586550794255,
                    0.005668651479374225,
                    -0.01869452839551649,
                    0.003946879460983422,
                    0.01458362346964011,
                    -0.010694717418012515,
                    -0.0739012526959493,
                    -0.015022608634472264,
                    0.021169514724522397,
                    0.004123834529371423,
                    -0.0035785892148665673,
                    -0.018235508399989414,
                    0.008354711267100419,
                    -0.021917772816970535,
                    0.04768599461682157,
                    -0.017395680314159404,
                    -0.018359802462494242,
                    -0.012658873329404033,
                    -0.047207884588770836,
                    0.041413879156848174,
                    0.07950957216443541,
                    -0.010867181902552633,
                    -0.002494879424103453,
                    0.03855436800643742,
                    -0.06463161967241138,
                    0.05737294970559459,
                    -0.04182000767017949,
                    0.0003219223393335043,
                    0.040770326405210895,
                    0.018352108050242257,
                    0.05610036023981487,
                    0.009446530300863485,
                    -0.0020546434956403353,
                    -0.024813067852112968,
                    0.01296596519291599,
                    -0.1153499677033039,
                    0.034073909356654775,
                    0.012855133145605815,
                    -0.009892386288857804,
                    -0.023280061623884858,
                    -0.01481624276590968,
                    0.029383586463266297,
                    -0.01841030707085059,
                    -0.009187530989970346,
                    -0.028834989000008655,
                    -0.04898012989257853,
                    0.03642405153309875,
                    0.09430322815976262,
                    -0.018357326079453395,
                    0.025208898357331803,
                    -0.03700078266998021,
                    0.006228013542726689,
                    -0.04861378719973211,
                    0.05223021071303123,
                    -0.039755111755770005,
                    0.047911679996697855,
                    0.04462260349957855,
                    -0.031556218453192904,
                    -0.06245400815365463,
                    0.007481852947407868,
                    -0.011714513909587585,
                    -0.07946502135066565,
                    -0.08119313569721075,
                    -0.020936231081168568,
                    0.02842257384526762,
                    0.0589920732203661,
                    0.03014166843143764,
                    0.0036885826383801956,
                    -0.023737972525574687,
                    -0.04097557974990171,
                    0.01576912447769047,
                    0.06016330134564864,
                    -0.005842843658319256,
                    -0.001120318152534454,
                    -0.05114055489016249,
                    -0.012651344494693283,
                    0.0002609299121541798,
                    -0.014727314874108345,
                    0.013717290012584791,
                    -0.03257615439327085,
                    -0.0008136277003550006,
                    -0.022940804604249476,
                    -0.029785332723760053,
                    0.05592558895309673,
                    -0.009006179518428328,
                    0.006203776154358943,
                    -0.0338150358309533,
                    -0.006137209449276584,
                    -0.0027346119787289053,
                    -0.034825723930516334,
                    -0.03041221245654544,
                    -0.03452282356250327,
                    0.007209662507365892,
                    0.06206851228431605,
                    0.037346100344093476,
                    -0.0011038666326147874,
                    0.053512364347445426,
                    0.0764377175168509,
                    -0.0021999147587610703,
                    0.025300157974004533,
                    0.04063687211272822,
                    -0.01424117279631169,
                    -0.04898576798289868,
                    0.007851786593815207,
                    0.06257271927312372,
                    -0.029742210435687533,
                    -0.01633052320446504,
                    -0.0523377152226496,
                    -0.03554071603567076,
                    -0.0001047576676746066,
                    0.03982679574604368,
                    -0.003091729052044842,
                    -0.0015792436465040718,
                    -0.016646629710620184,
                    -0.03742465601417488,
                    -0.06737364556887325,
                    -0.06257642035012263,
                    -0.05641147474272826,
                    -0.05181947201232888,
                    -0.031932685672040315,
                    -0.05323716060421567,
                    0.004456584791841144,
                    -0.008199988949560855,
                    0.032403733743748955,
                    0.010283956257603932,
                    0.050932135476332664,
                    -0.011177188935637237,
                    0.04982422941308106,
                    0.041315393470149384,
                    -0.010805744004196378,
                    -0.024207711669340753,
                    0.0037645854024432133,
                    -0.04540643721477258,
                    0.07157918287080202,
                    -0.00372271741290941,
                    0.0058351498304266575,
                    -0.05395127171856377,
                    -0.05801480819963855,
                    0.02112396288961057,
                    0.02957510041168682,
                    -0.010467694505569117,
                    -0.011730368673527884,
                    -0.01807397735790234,
                    0.0037006815791358403,
                    0.0022129709203483287,
                    -0.079806382386746,
                    -0.014215113824467714,
                    -0.07619029599850227,
                    -0.015662339017936594,
                    0.029627776628760014,
                    -0.03511179934014678,
                    0.1186412879547647,
                    0.1008523859708288,
                    0.03832895322427222,
                    0.02763086600580223,
                    -0.03897544123932836,
                    0.0853138348771279,
                    -0.000719366608655864,
                    -0.005620204625395536,
                    0.04404357130523606,
                    0.00016039287891413768,
                    -0.021416416157975397,
                    0.003037116102597136,
                    -0.017492700946140544,
                    0.0163442064251036,
                    0.027828558637120148,
                    0.004089414802509576,
                    0.0648961288626117,
                    0.007892628148870092,
                    0.02830920755776299,
                    0.06630414873344072,
                    -0.04120147804690852,
                    0.01754057737061783,
                    -0.06155369874520557,
                    -0.07406156373326997,
                    0.025570639133483106,
                    0.02921835179536355,
                    0.046544726227018336,
                    -0.016824360720515786,
                    0.0608691989099857,
                    -0.041993023348960976,
                    -0.004574129203674806,
                    0.010787537488312541,
                    0.03869879730433544,
                    -0.05663775705654842,
                    -0.11743188778036127,
                    -0.009402425577297095,
                    -0.005384098828768228,
                    -0.009940340427627455,
                    -0.01714815576649494,
                    0.006743346266269361,
                    -0.04562639440446469,
                    0.046244531322995386,
                    0.015094363323728478,
                    -0.04615233736349397,
                    -0.04909179998861698,
                    0.0012373976088816173,
                    -0.01636901276371556,
                    0.007492604190824133,
                    0.053088686527959894,
                    -0.00575778534937636,
                    0.05166487372908185,
                    -0.009295840324758846,
                    -0.06785458543957366,
                    0.024301314409261737,
                    0.014681565472976882,
                    0.0009466370098834184,
                    0.03564545884702617,
                    0.0069630375885984626,
                    -0.059915932080377224,
                    -0.03799049026979071,
                    0.03453909947006624,
                    0.0019324127964062663,
                    0.016743699875096586,
                    0.022976996068975956,
                    0.03734493445658324,
                    -0.0467161724255912,
                    -0.030715812422282312,
                    -0.07009471683019902,
                    -0.034327449801781186,
                    -0.0008478555574863501,
                    -0.008051645740938956,
                    -0.021557778332324255,
                    0.0717587220843466,
                    0.0075924785950127315,
                    -0.000358063616497785,
                    0.03873088887969502,
                    0.055853808956496234,
                    -0.07521921968272985,
                    -0.014021974562452976,
                    0.002420990182237244,
                    -0.08531156471587849,
                    -0.016969224654510076,
                    0.04198220384108608,
                    -0.0740265522189093,
                    -0.07462931375761608,
                    0.010457223352130661,
